digraph Tree {
node [shape=box] ;
0 [label="X[0] <= 19.5\ngini = 0.2116\nsamples = 25471\nvalue = [2699, 22452, 320]"] ;
1 [label="X[0] <= 16.5\ngini = 0.054\nsamples = 21105\nvalue = [553, 20520, 32]"] ;
0 -> 1 [labeldistance=2.5, labelangle=45, headlabel="True"] ;
2 [label="X[0] <= 14.5\ngini = 0.015\nsamples = 18103\nvalue = [125, 17966, 12]"] ;
1 -> 2 ;
3 [label="X[7] <= 6.0\ngini = 0.006\nsamples = 15526\nvalue = [40, 15479, 7]"] ;
2 -> 3 ;
4 [label="X[0] <= 12.5\ngini = 0.0059\nsamples = 15523\nvalue = [39, 15477, 7]"] ;
3 -> 4 ;
5 [label="gini = 0.0024\nsamples = 12465\nvalue = [13, 12450, 2]"] ;
4 -> 5 ;
6 [label="gini = 0.0201\nsamples = 3058\nvalue = [26, 3027, 5]"] ;
4 -> 6 ;
7 [label="X[6] <= 15.0\ngini = 0.4444\nsamples = 3\nvalue = [1, 2, 0]"] ;
3 -> 7 ;
8 [label="gini = 0.0\nsamples = 1\nvalue = [1, 0, 0]"] ;
7 -> 8 ;
9 [label="gini = 0.0\nsamples = 2\nvalue = [0, 2, 0]"] ;
7 -> 9 ;
10 [label="X[1] <= 20.5\ngini = 0.0675\nsamples = 2577\nvalue = [85, 2487, 5]"] ;
2 -> 10 ;
11 [label="X[3] <= 12.605\ngini = 0.0661\nsamples = 2575\nvalue = [83, 2487, 5]"] ;
10 -> 11 ;
12 [label="gini = 0.0654\nsamples = 2574\nvalue = [82, 2487, 5]"] ;
11 -> 12 ;
13 [label="gini = 0.0\nsamples = 1\nvalue = [1, 0, 0]"] ;
11 -> 13 ;
14 [label="gini = 0.0\nsamples = 2\nvalue = [2, 0, 0]"] ;
10 -> 14 ;
15 [label="X[3] <= 7.645\ngini = 0.2558\nsamples = 3002\nvalue = [428, 2554, 20]"] ;
1 -> 15 ;
16 [label="X[6] <= 6.5\ngini = 0.2167\nsamples = 2788\nvalue = [324, 2446, 18]"] ;
15 -> 16 ;
17 [label="X[0] <= 18.5\ngini = 0.1938\nsamples = 2533\nvalue = [263, 2259, 11]"] ;
16 -> 17 ;
18 [label="gini = 0.1577\nsamples = 1814\nvalue = [151, 1658, 5]"] ;
17 -> 18 ;
19 [label="gini = 0.277\nsamples = 719\nvalue = [112, 601, 6]"] ;
17 -> 19 ;
20 [label="X[7] <= 3.5\ngini = 0.4042\nsamples = 255\nvalue = [61, 187, 7]"] ;
16 -> 20 ;
21 [label="gini = 0.3525\nsamples = 218\nvalue = [47, 169, 2]"] ;
20 -> 21 ;
22 [label="gini = 0.6019\nsamples = 37\nvalue = [14, 18, 5]"] ;
20 -> 22 ;
23 [label="X[2] <= 0.5535\ngini = 0.509\nsamples = 214\nvalue = [104, 108, 2]"] ;
15 -> 23 ;
24 [label="X[3] <= 11.65\ngini = 0.1723\nsamples = 42\nvalue = [4, 38, 0]"] ;
23 -> 24 ;
25 [label="gini = 0.1356\nsamples = 41\nvalue = [3, 38, 0]"] ;
24 -> 25 ;
26 [label="gini = 0.0\nsamples = 1\nvalue = [1, 0, 0]"] ;
24 -> 26 ;
27 [label="X[3] <= 8.86\ngini = 0.4962\nsamples = 172\nvalue = [100, 70, 2]"] ;
23 -> 27 ;
28 [label="gini = 0.5191\nsamples = 80\nvalue = [35, 43, 2]"] ;
27 -> 28 ;
29 [label="gini = 0.4147\nsamples = 92\nvalue = [65, 27, 0]"] ;
27 -> 29 ;
30 [label="X[6] <= 0.5\ngini = 0.5582\nsamples = 4366\nvalue = [2146, 1932, 288]"] ;
0 -> 30 [labeldistance=2.5, labelangle=-45, headlabel="False"] ;
31 [label="X[0] <= 22.5\ngini = 0.4756\nsamples = 2441\nvalue = [867, 1540, 34]"] ;
30 -> 31 ;
32 [label="X[3] <= 4.675\ngini = 0.4203\nsamples = 1562\nvalue = [447, 1102, 13]"] ;
31 -> 32 ;
33 [label="X[2] <= 0.8725\ngini = 0.385\nsamples = 1342\nvalue = [334, 998, 10]"] ;
32 -> 33 ;
34 [label="gini = 0.3973\nsamples = 1279\nvalue = [334, 935, 10]"] ;
33 -> 34 ;
35 [label="gini = 0.0\nsamples = 63\nvalue = [0, 63, 0]"] ;
33 -> 35 ;
36 [label="X[1] <= 12.5\ngini = 0.5125\nsamples = 220\nvalue = [113, 104, 3]"] ;
32 -> 36 ;
37 [label="gini = 0.4468\nsamples = 133\nvalue = [90, 41, 2]"] ;
36 -> 37 ;
38 [label="gini = 0.4056\nsamples = 87\nvalue = [23, 63, 1]"] ;
36 -> 38 ;
39 [label="X[1] <= 4.5\ngini = 0.5228\nsamples = 879\nvalue = [420, 438, 21]"] ;
31 -> 39 ;
40 [label="X[3] <= -0.22\ngini = 0.3875\nsamples = 109\nvalue = [18, 83, 8]"] ;
39 -> 40 ;
41 [label="gini = 0.4898\nsamples = 28\nvalue = [16, 12, 0]"] ;
40 -> 41 ;
42 [label="gini = 0.2213\nsamples = 81\nvalue = [2, 71, 8]"] ;
40 -> 42 ;
43 [label="X[1] <= 9.5\ngini = 0.5146\nsamples = 770\nvalue = [402, 355, 13]"] ;
39 -> 43 ;
44 [label="gini = 0.505\nsamples = 542\nvalue = [312, 219, 11]"] ;
43 -> 44 ;
45 [label="gini = 0.4883\nsamples = 228\nvalue = [90, 136, 2]"] ;
43 -> 45 ;
46 [label="X[0] <= 27.5\ngini = 0.4997\nsamples = 1925\nvalue = [1279, 392, 254]"] ;
30 -> 46 ;
47 [label="X[7] <= 6.5\ngini = 0.4645\nsamples = 1554\nvalue = [1065, 385, 104]"] ;
46 -> 47 ;
48 [label="X[7] <= 0.5\ngini = 0.5446\nsamples = 818\nvalue = [471, 280, 67]"] ;
47 -> 48 ;
49 [label="gini = 0.5079\nsamples = 639\nvalue = [371, 251, 17]"] ;
48 -> 49 ;
50 [label="gini = 0.5836\nsamples = 179\nvalue = [100, 29, 50]"] ;
48 -> 50 ;
51 [label="X[1] <= 6.5\ngini = 0.3258\nsamples = 736\nvalue = [594, 105, 37]"] ;
47 -> 51 ;
52 [label="gini = 0.4968\nsamples = 255\nvalue = [163, 77, 15]"] ;
51 -> 52 ;
53 [label="gini = 0.1916\nsamples = 481\nvalue = [431, 28, 22]"] ;
51 -> 53 ;
54 [label="X[2] <= 0.922\ngini = 0.5035\nsamples = 371\nvalue = [214, 7, 150]"] ;
46 -> 54 ;
55 [label="X[3] <= 9.905\ngini = 0.4728\nsamples = 315\nvalue = [201, 5, 109]"] ;
54 -> 55 ;
56 [label="gini = 0.4348\nsamples = 275\nvalue = [191, 5, 79]"] ;
55 -> 56 ;
57 [label="gini = 0.375\nsamples = 40\nvalue = [10, 0, 30]"] ;
55 -> 57 ;
58 [label="X[7] <= 4.5\ngini = 0.4088\nsamples = 56\nvalue = [13, 2, 41]"] ;
54 -> 58 ;
59 [label="gini = 0.3016\nsamples = 50\nvalue = [8, 1, 41]"] ;
58 -> 59 ;
60 [label="gini = 0.2778\nsamples = 6\nvalue = [5, 1, 0]"] ;
58 -> 60 ;
}