digraph Tree {
node [shape=box] ;
0 [label="FTA <= 0.85\nmse = 1.8951\nsamples = 168\nvalue = 2.875"] ;
1 [label="DRB <= 0.55\nmse = 1.2565\nsamples = 96\nvalue = 2.1875"] ;
0 -> 1 [labeldistance=2.5, labelangle=45, headlabel="True"] ;
2 [label="mse = 0.6211\nsamples = 16\nvalue = 3.5625"] ;
1 -> 2 ;
3 [label="AST <= 0.35\nmse = 0.9298\nsamples = 80\nvalue = 1.9125"] ;
1 -> 3 ;
4 [label="DRB <= 3.55\nmse = 0.4752\nsamples = 59\nvalue = 1.6102"] ;
3 -> 4 ;
5 [label="2P <= 0.5375\nmse = 0.4711\nsamples = 45\nvalue = 1.8"] ;
4 -> 5 ;
6 [label="GS <= 2.55\nmse = 0.24\nsamples = 35\nvalue = 1.6"] ;
5 -> 6 ;
7 [label="TOV <= 4.1\nmse = 0.24\nsamples = 20\nvalue = 1.4"] ;
6 -> 7 ;
8 [label="mse = 0.25\nsamples = 10\nvalue = 1.5"] ;
7 -> 8 ;
9 [label="mse = 0.21\nsamples = 10\nvalue = 1.3"] ;
7 -> 9 ;
10 [label="mse = 0.1156\nsamples = 15\nvalue = 1.8667"] ;
6 -> 10 ;
11 [label="mse = 0.65\nsamples = 10\nvalue = 2.5"] ;
5 -> 11 ;
12 [label="mse = 0.0\nsamples = 14\nvalue = 1.0"] ;
4 -> 12 ;
13 [label="DRB <= 2.05\nmse = 1.229\nsamples = 21\nvalue = 2.7619"] ;
3 -> 13 ;
14 [label="mse = 0.9587\nsamples = 11\nvalue = 3.3636"] ;
13 -> 14 ;
15 [label="mse = 0.69\nsamples = 10\nvalue = 2.1"] ;
13 -> 15 ;
16 [label="DRB <= 2.85\nmse = 1.276\nsamples = 72\nvalue = 3.7917"] ;
0 -> 16 [labeldistance=2.5, labelangle=-45, headlabel="False"] ;
17 [label="AST <= 0.65\nmse = 0.5992\nsamples = 56\nvalue = 4.1607"] ;
16 -> 17 ;
18 [label="G <= 25.65\nmse = 0.5432\nsamples = 31\nvalue = 3.8065"] ;
17 -> 18 ;
19 [label="mse = 0.2041\nsamples = 14\nvalue = 4.2857"] ;
18 -> 19 ;
20 [label="mse = 0.4775\nsamples = 17\nvalue = 3.4118"] ;
18 -> 20 ;
21 [label="FG% <= 0.15\nmse = 0.32\nsamples = 25\nvalue = 4.6"] ;
17 -> 21 ;
22 [label="mse = 0.0826\nsamples = 11\nvalue = 4.9091"] ;
21 -> 22 ;
23 [label="mse = 0.3724\nsamples = 14\nvalue = 4.3571"] ;
21 -> 23 ;
24 [label="mse = 1.5\nsamples = 16\nvalue = 2.5"] ;
16 -> 24 ;
}