digraph Tree {
node [shape=box] ;
0 [label="PatientEncounterID <= 910.5\ngini = 0.2835\nsamples = 500\nvalue = [415, 2, 83]"] ;
1 [label="PatientEncounterID <= 111.0\ngini = 0.2574\nsamples = 451\nvalue = [383, 2, 66]"] ;
0 -> 1 [labeldistance=2.5, labelangle=45, headlabel="True"] ;
2 [label="PatientEncounterID <= 55.0\ngini = 0.4082\nsamples = 56\nvalue = [40, 0, 16]"] ;
1 -> 2 ;
3 [label="PatientEncounterID <= 22.0\ngini = 0.18\nsamples = 30\nvalue = [27, 0, 3]"] ;
2 -> 3 ;
4 [label="PatientEncounterID <= 18.5\ngini = 0.355\nsamples = 13\nvalue = [10, 0, 3]"] ;
3 -> 4 ;
5 [label="PatientEncounterID <= 12.5\ngini = 0.1653\nsamples = 11\nvalue = [10, 0, 1]"] ;
4 -> 5 ;
6 [label="gini = 0.0\nsamples = 8\nvalue = [8, 0, 0]"] ;
5 -> 6 ;
7 [label="PatientEncounterID <= 14.5\ngini = 0.4444\nsamples = 3\nvalue = [2, 0, 1]"] ;
5 -> 7 ;
8 [label="gini = 0.0\nsamples = 1\nvalue = [0, 0, 1]"] ;
7 -> 8 ;
9 [label="gini = 0.0\nsamples = 2\nvalue = [2, 0, 0]"] ;
7 -> 9 ;
10 [label="gini = 0.0\nsamples = 2\nvalue = [0, 0, 2]"] ;
4 -> 10 ;
11 [label="gini = 0.0\nsamples = 17\nvalue = [17, 0, 0]"] ;
3 -> 11 ;
12 [label="PatientEncounterID <= 68.0\ngini = 0.5\nsamples = 26\nvalue = [13, 0, 13]"] ;
2 -> 12 ;
13 [label="gini = 0.0\nsamples = 6\nvalue = [0, 0, 6]"] ;
12 -> 13 ;
14 [label="PatientEncounterID <= 106.5\ngini = 0.455\nsamples = 20\nvalue = [13, 0, 7]"] ;
12 -> 14 ;
15 [label="PatientEncounterID <= 80.5\ngini = 0.3599\nsamples = 17\nvalue = [13, 0, 4]"] ;
14 -> 15 ;
16 [label="gini = 0.0\nsamples = 7\nvalue = [7, 0, 0]"] ;
15 -> 16 ;
17 [label="PatientEncounterID <= 89.5\ngini = 0.48\nsamples = 10\nvalue = [6, 0, 4]"] ;
15 -> 17 ;
18 [label="gini = 0.0\nsamples = 4\nvalue = [0, 0, 4]"] ;
17 -> 18 ;
19 [label="gini = 0.0\nsamples = 6\nvalue = [6, 0, 0]"] ;
17 -> 19 ;
20 [label="gini = 0.0\nsamples = 3\nvalue = [0, 0, 3]"] ;
14 -> 20 ;
21 [label="PatientEncounterID <= 501.5\ngini = 0.2299\nsamples = 395\nvalue = [343, 2, 50]"] ;
1 -> 21 ;
22 [label="PatientEncounterID <= 232.5\ngini = 0.1446\nsamples = 205\nvalue = [189, 1, 15]"] ;
21 -> 22 ;
23 [label="PatientEncounterID <= 210.0\ngini = 0.2893\nsamples = 57\nvalue = [47, 0, 10]"] ;
22 -> 23 ;
24 [label="gini = 0.0\nsamples = 47\nvalue = [47, 0, 0]"] ;
23 -> 24 ;
25 [label="gini = 0.0\nsamples = 10\nvalue = [0, 0, 10]"] ;
23 -> 25 ;
26 [label="GenderFLG <= 0.5\ngini = 0.0783\nsamples = 148\nvalue = [142, 1, 5]"] ;
22 -> 26 ;
27 [label="PatientEncounterID <= 300.0\ngini = 0.1326\nsamples = 85\nvalue = [79, 1, 5]"] ;
26 -> 27 ;
28 [label="gini = 0.0\nsamples = 32\nvalue = [32, 0, 0]"] ;
27 -> 28 ;
29 [label="PatientEncounterID <= 311.0\ngini = 0.2043\nsamples = 53\nvalue = [47, 1, 5]"] ;
27 -> 29 ;
30 [label="gini = 0.0\nsamples = 1\nvalue = [0, 1, 0]"] ;
29 -> 30 ;
31 [label="PatientEncounterID <= 417.5\ngini = 0.1738\nsamples = 52\nvalue = [47, 0, 5]"] ;
29 -> 31 ;
32 [label="PatientEncounterID <= 414.5\ngini = 0.2778\nsamples = 30\nvalue = [25, 0, 5]"] ;
31 -> 32 ;
33 [label="PatientEncounterID <= 333.5\ngini = 0.1913\nsamples = 28\nvalue = [25, 0, 3]"] ;
32 -> 33 ;
34 [label="PatientEncounterID <= 330.0\ngini = 0.375\nsamples = 8\nvalue = [6, 0, 2]"] ;
33 -> 34 ;
35 [label="gini = 0.0\nsamples = 6\nvalue = [6, 0, 0]"] ;
34 -> 35 ;
36 [label="gini = 0.0\nsamples = 2\nvalue = [0, 0, 2]"] ;
34 -> 36 ;
37 [label="PatientEncounterID <= 410.5\ngini = 0.095\nsamples = 20\nvalue = [19, 0, 1]"] ;
33 -> 37 ;
38 [label="gini = 0.0\nsamples = 17\nvalue = [17, 0, 0]"] ;
37 -> 38 ;
39 [label="PatientEncounterID <= 412.0\ngini = 0.4444\nsamples = 3\nvalue = [2, 0, 1]"] ;
37 -> 39 ;
40 [label="gini = 0.0\nsamples = 1\nvalue = [0, 0, 1]"] ;
39 -> 40 ;
41 [label="gini = 0.0\nsamples = 2\nvalue = [2, 0, 0]"] ;
39 -> 41 ;
42 [label="gini = 0.0\nsamples = 2\nvalue = [0, 0, 2]"] ;
32 -> 42 ;
43 [label="gini = 0.0\nsamples = 22\nvalue = [22, 0, 0]"] ;
31 -> 43 ;
44 [label="gini = 0.0\nsamples = 63\nvalue = [63, 0, 0]"] ;
26 -> 44 ;
45 [label="PatientEncounterID <= 608.0\ngini = 0.3091\nsamples = 190\nvalue = [154, 1, 35]"] ;
21 -> 45 ;
46 [label="PatientEncounterID <= 551.0\ngini = 0.4631\nsamples = 58\nvalue = [38, 1, 19]"] ;
45 -> 46 ;
47 [label="PatientEncounterID <= 508.5\ngini = 0.2604\nsamples = 26\nvalue = [22, 0, 4]"] ;
46 -> 47 ;
48 [label="gini = 0.0\nsamples = 2\nvalue = [0, 0, 2]"] ;
47 -> 48 ;
49 [label="PatientEncounterID <= 532.0\ngini = 0.1528\nsamples = 24\nvalue = [22, 0, 2]"] ;
47 -> 49 ;
50 [label="PatientEncounterID <= 529.0\ngini = 0.2778\nsamples = 12\nvalue = [10, 0, 2]"] ;
49 -> 50 ;
51 [label="PatientEncounterID <= 519.5\ngini = 0.1653\nsamples = 11\nvalue = [10, 0, 1]"] ;
50 -> 51 ;
52 [label="gini = 0.0\nsamples = 5\nvalue = [5, 0, 0]"] ;
51 -> 52 ;
53 [label="PatientEncounterID <= 521.0\ngini = 0.2778\nsamples = 6\nvalue = [5, 0, 1]"] ;
51 -> 53 ;
54 [label="gini = 0.0\nsamples = 1\nvalue = [0, 0, 1]"] ;
53 -> 54 ;
55 [label="gini = 0.0\nsamples = 5\nvalue = [5, 0, 0]"] ;
53 -> 55 ;
56 [label="gini = 0.0\nsamples = 1\nvalue = [0, 0, 1]"] ;
50 -> 56 ;
57 [label="gini = 0.0\nsamples = 12\nvalue = [12, 0, 0]"] ;
49 -> 57 ;
58 [label="PatientEncounterID <= 560.0\ngini = 0.5293\nsamples = 32\nvalue = [16, 1, 15]"] ;
46 -> 58 ;
59 [label="gini = 0.0\nsamples = 6\nvalue = [0, 0, 6]"] ;
58 -> 59 ;
60 [label="PatientEncounterID <= 601.5\ngini = 0.5\nsamples = 26\nvalue = [16, 1, 9]"] ;
58 -> 60 ;
61 [label="PatientEncounterID <= 571.0\ngini = 0.4461\nsamples = 23\nvalue = [16, 1, 6]"] ;
60 -> 61 ;
62 [label="GenderFLG <= 0.5\ngini = 0.2188\nsamples = 8\nvalue = [7, 1, 0]"] ;
61 -> 62 ;
63 [label="gini = 0.0\nsamples = 1\nvalue = [0, 1, 0]"] ;
62 -> 63 ;
64 [label="gini = 0.0\nsamples = 7\nvalue = [7, 0, 0]"] ;
62 -> 64 ;
65 [label="GenderFLG <= 0.5\ngini = 0.48\nsamples = 15\nvalue = [9, 0, 6]"] ;
61 -> 65 ;
66 [label="gini = 0.0\nsamples = 4\nvalue = [4, 0, 0]"] ;
65 -> 66 ;
67 [label="PatientEncounterID <= 581.5\ngini = 0.4959\nsamples = 11\nvalue = [5, 0, 6]"] ;
65 -> 67 ;
68 [label="PatientEncounterID <= 575.5\ngini = 0.32\nsamples = 5\nvalue = [1, 0, 4]"] ;
67 -> 68 ;
69 [label="gini = 0.0\nsamples = 2\nvalue = [0, 0, 2]"] ;
68 -> 69 ;
70 [label="PatientEncounterID <= 578.5\ngini = 0.4444\nsamples = 3\nvalue = [1, 0, 2]"] ;
68 -> 70 ;
71 [label="gini = 0.0\nsamples = 1\nvalue = [1, 0, 0]"] ;
70 -> 71 ;
72 [label="gini = 0.0\nsamples = 2\nvalue = [0, 0, 2]"] ;
70 -> 72 ;
73 [label="PatientEncounterID <= 588.0\ngini = 0.4444\nsamples = 6\nvalue = [4, 0, 2]"] ;
67 -> 73 ;
74 [label="gini = 0.0\nsamples = 3\nvalue = [3, 0, 0]"] ;
73 -> 74 ;
75 [label="PatientEncounterID <= 591.5\ngini = 0.4444\nsamples = 3\nvalue = [1, 0, 2]"] ;
73 -> 75 ;
76 [label="gini = 0.0\nsamples = 2\nvalue = [0, 0, 2]"] ;
75 -> 76 ;
77 [label="gini = 0.0\nsamples = 1\nvalue = [1, 0, 0]"] ;
75 -> 77 ;
78 [label="gini = 0.0\nsamples = 3\nvalue = [0, 0, 3]"] ;
60 -> 78 ;
79 [label="PatientEncounterID <= 766.0\ngini = 0.213\nsamples = 132\nvalue = [116, 0, 16]"] ;
45 -> 79 ;
80 [label="PatientEncounterID <= 677.0\ngini = 0.101\nsamples = 75\nvalue = [71, 0, 4]"] ;
79 -> 80 ;
81 [label="gini = 0.0\nsamples = 32\nvalue = [32, 0, 0]"] ;
80 -> 81 ;
82 [label="PatientEncounterID <= 689.5\ngini = 0.1687\nsamples = 43\nvalue = [39, 0, 4]"] ;
80 -> 82 ;
83 [label="PatientEncounterID <= 683.0\ngini = 0.4444\nsamples = 3\nvalue = [1, 0, 2]"] ;
82 -> 83 ;
84 [label="gini = 0.0\nsamples = 1\nvalue = [0, 0, 1]"] ;
83 -> 84 ;
85 [label="GenderFLG <= 0.5\ngini = 0.5\nsamples = 2\nvalue = [1, 0, 1]"] ;
83 -> 85 ;
86 [label="gini = 0.0\nsamples = 1\nvalue = [0, 0, 1]"] ;
85 -> 86 ;
87 [label="gini = 0.0\nsamples = 1\nvalue = [1, 0, 0]"] ;
85 -> 87 ;
88 [label="PatientEncounterID <= 703.5\ngini = 0.095\nsamples = 40\nvalue = [38, 0, 2]"] ;
82 -> 88 ;
89 [label="PatientEncounterID <= 701.5\ngini = 0.2449\nsamples = 7\nvalue = [6, 0, 1]"] ;
88 -> 89 ;
90 [label="gini = 0.0\nsamples = 6\nvalue = [6, 0, 0]"] ;
89 -> 90 ;
91 [label="gini = 0.0\nsamples = 1\nvalue = [0, 0, 1]"] ;
89 -> 91 ;
92 [label="PatientEncounterID <= 749.5\ngini = 0.0588\nsamples = 33\nvalue = [32, 0, 1]"] ;
88 -> 92 ;
93 [label="gini = 0.0\nsamples = 25\nvalue = [25, 0, 0]"] ;
92 -> 93 ;
94 [label="PatientEncounterID <= 751.5\ngini = 0.2188\nsamples = 8\nvalue = [7, 0, 1]"] ;
92 -> 94 ;
95 [label="gini = 0.0\nsamples = 1\nvalue = [0, 0, 1]"] ;
94 -> 95 ;
96 [label="gini = 0.0\nsamples = 7\nvalue = [7, 0, 0]"] ;
94 -> 96 ;
97 [label="PatientEncounterID <= 817.5\ngini = 0.3324\nsamples = 57\nvalue = [45, 0, 12]"] ;
79 -> 97 ;
98 [label="PatientEncounterID <= 811.0\ngini = 0.5\nsamples = 24\nvalue = [12, 0, 12]"] ;
97 -> 98 ;
99 [label="PatientEncounterID <= 803.0\ngini = 0.48\nsamples = 20\nvalue = [12, 0, 8]"] ;
98 -> 99 ;
100 [label="PatientEncounterID <= 786.5\ngini = 0.4898\nsamples = 14\nvalue = [6, 0, 8]"] ;
99 -> 100 ;
101 [label="PatientEncounterID <= 773.5\ngini = 0.4688\nsamples = 8\nvalue = [5, 0, 3]"] ;
100 -> 101 ;
102 [label="gini = 0.0\nsamples = 3\nvalue = [0, 0, 3]"] ;
101 -> 102 ;
103 [label="gini = 0.0\nsamples = 5\nvalue = [5, 0, 0]"] ;
101 -> 103 ;
104 [label="PatientEncounterID <= 793.5\ngini = 0.2778\nsamples = 6\nvalue = [1, 0, 5]"] ;
100 -> 104 ;
105 [label="PatientEncounterID <= 790.5\ngini = 0.4444\nsamples = 3\nvalue = [1, 0, 2]"] ;
104 -> 105 ;
106 [label="gini = 0.0\nsamples = 2\nvalue = [0, 0, 2]"] ;
105 -> 106 ;
107 [label="gini = 0.0\nsamples = 1\nvalue = [1, 0, 0]"] ;
105 -> 107 ;
108 [label="gini = 0.0\nsamples = 3\nvalue = [0, 0, 3]"] ;
104 -> 108 ;
109 [label="gini = 0.0\nsamples = 6\nvalue = [6, 0, 0]"] ;
99 -> 109 ;
110 [label="gini = 0.0\nsamples = 4\nvalue = [0, 0, 4]"] ;
98 -> 110 ;
111 [label="gini = 0.0\nsamples = 33\nvalue = [33, 0, 0]"] ;
97 -> 111 ;
112 [label="PatientEncounterID <= 926.0\ngini = 0.4531\nsamples = 49\nvalue = [32, 0, 17]"] ;
0 -> 112 [labeldistance=2.5, labelangle=-45, headlabel="False"] ;
113 [label="gini = 0.0\nsamples = 9\nvalue = [0, 0, 9]"] ;
112 -> 113 ;
114 [label="PatientEncounterID <= 964.5\ngini = 0.32\nsamples = 40\nvalue = [32, 0, 8]"] ;
112 -> 114 ;
115 [label="PatientEncounterID <= 945.5\ngini = 0.4875\nsamples = 19\nvalue = [11, 0, 8]"] ;
114 -> 115 ;
116 [label="gini = 0.0\nsamples = 10\nvalue = [10, 0, 0]"] ;
115 -> 116 ;
117 [label="PatientEncounterID <= 954.0\ngini = 0.1975\nsamples = 9\nvalue = [1, 0, 8]"] ;
115 -> 117 ;
118 [label="PatientEncounterID <= 951.5\ngini = 0.375\nsamples = 4\nvalue = [1, 0, 3]"] ;
117 -> 118 ;
119 [label="gini = 0.0\nsamples = 3\nvalue = [0, 0, 3]"] ;
118 -> 119 ;
120 [label="gini = 0.0\nsamples = 1\nvalue = [1, 0, 0]"] ;
118 -> 120 ;
121 [label="gini = 0.0\nsamples = 5\nvalue = [0, 0, 5]"] ;
117 -> 121 ;
122 [label="gini = 0.0\nsamples = 21\nvalue = [21, 0, 0]"] ;
114 -> 122 ;
}